<?xml version="1.0"?>
<opencv_storage>
<cascade>
  <stageType>BOOST</stageType>
  <featureType>HAAR</featureType>
  <height>50</height>
  <width>50</width>
  <stageParams>
    <boostType>GAB</boostType>
    <minHitRate>9.9900001287460327e-01</minHitRate>
    <maxFalseAlarm>5.0000000000000000e-01</maxFalseAlarm>
    <weightTrimRate>9.4999999999999996e-01</weightTrimRate>
    <maxDepth>1</maxDepth>
    <maxWeakCount>100</maxWeakCount></stageParams>
  <featureParams>
    <maxCatCount>0</maxCatCount>
    <featSize>1</featSize>
    <mode>BASIC</mode></featureParams>
  <stageNum>10</stageNum>
  <stages>
    <!-- stage 0 -->
    <_>
      <maxWeakCount>5</maxWeakCount>
      <stageThreshold>-5.0311958789825439e-01</stageThreshold>
      <weakClassifiers>
        <_>
          <internalNodes>
            0 -1 24 -5.4769655689597130e-03</internalNodes>
          <leafValues>
            9.4736844301223755e-01 -4.8134326934814453e-01</leafValues></_>
        <_>
          <internalNodes>
            0 -1 59 -3.4683092962950468e-04</internalNodes>
          <leafValues>
            -9.0887337923049927e-01 3.4697031974792480e-01</leafValues></_>
        <_>
          <internalNodes>
            0 -1 60 6.7874863743782043e-03</internalNodes>
          <leafValues>
            -3.5204887390136719e-01 9.3882465362548828e-01</leafValues></_>
        <_>
          <internalNodes>
            0 -1 66 -2.2155288606882095e-03</internalNodes>
          <leafValues>
            8.9829432964324951e-01 -3.4025847911834717e-01</leafValues></_>
        <_>
          <internalNodes>
            0 -1 64 -5.1282165804877877e-04</internalNodes>
          <leafValues>
            -9.1499203443527222e-01 3.6702629923820496e-01</leafValues></_></weakClassifiers></_>
    <!-- stage 1 -->
    <_>
      <maxWeakCount>8</maxWeakCount>
      <stageThreshold>-9.7766387462615967e-01</stageThreshold>
      <weakClassifiers>
        <_>
          <internalNodes>
            0 -1 40 9.4147044001147151e-04</internalNodes>
          <leafValues>
            -4.7184467315673828e-01 6.8888890743255615e-01</leafValues></_>
        <_>
          <internalNodes>
            0 -1 42 8.3046685904264450e-04</internalNodes>
          <leafValues>
            -2.4102354049682617e-01 7.9076647758483887e-01</leafValues></_>
        <_>
          <internalNodes>
            0 -1 72 -7.6680202037096024e-03</internalNodes>
          <leafValues>
            2.7274295687675476e-01 -7.7108389139175415e-01</leafValues></_>
        <_>
          <internalNodes>
            0 -1 31 2.1081743761897087e-04</internalNodes>
          <leafValues>
            -3.5484442114830017e-01 4.8526528477668762e-01</leafValues></_>
        <_>
          <internalNodes>
            0 -1 41 -3.0758301727473736e-03</internalNodes>
          <leafValues>
            6.7013376951217651e-01 -2.4676580727100372e-01</leafValues></_>
        <_>
          <internalNodes>
            0 -1 50 -4.6036759158596396e-04</internalNodes>
          <leafValues>
            8.4187060594558716e-01 -1.9907863438129425e-01</leafValues></_>
        <_>
          <internalNodes>
            0 -1 45 1.0743220336735249e-03</internalNodes>
          <leafValues>
            -2.4161995947360992e-01 8.2233399152755737e-01</leafValues></_>
        <_>
          <internalNodes>
            0 -1 48 -6.5049459226429462e-04</internalNodes>
          <leafValues>
            7.2448372840881348e-01 -2.0841224491596222e-01</leafValues></_></weakClassifiers></_>
    <!-- stage 2 -->
    <_>
      <maxWeakCount>11</maxWeakCount>
      <stageThreshold>-9.0220320224761963e-01</stageThreshold>
      <weakClassifiers>
        <_>
          <internalNodes>
            0 -1 36 8.8559500873088837e-03</internalNodes>
          <leafValues>
            -4.3068391084671021e-01 7.6146787405014038e-01</leafValues></_>
        <_>
          <internalNodes>
            0 -1 56 -2.2688333410769701e-03</internalNodes>
          <leafValues>
            7.5819796323776245e-01 -2.7236601710319519e-01</leafValues></_>
        <_>
          <internalNodes>
            0 -1 78 3.8843922317028046e-02</internalNodes>
          <leafValues>
            -1.5425187349319458e-01 8.2696789503097534e-01</leafValues></_>
        <_>
          <internalNodes>
            0 -1 39 1.5895499382168055e-03</internalNodes>
          <leafValues>
            -2.3157107830047607e-01 6.8871021270751953e-01</leafValues></_>
        <_>
          <internalNodes>
            0 -1 44 -6.4669400453567505e-03</internalNodes>
          <leafValues>
            8.2058519124984741e-01 -1.0598874092102051e-01</leafValues></_>
        <_>
          <internalNodes>
            0 -1 30 4.3605923652648926e-02</internalNodes>
          <leafValues>
            -1.8255966901779175e-01 8.2733947038650513e-01</leafValues></_>
        <_>
          <internalNodes>
            0 -1 18 -1.4381938613951206e-02</internalNodes>
          <leafValues>
            -6.9378101825714111e-01 2.7864018082618713e-01</leafValues></_>
        <_>
          <internalNodes>
            0 -1 62 -5.3485704120248556e-04</internalNodes>
          <leafValues>
            8.0219715833663940e-01 -1.4968937635421753e-01</leafValues></_>
        <_>
          <internalNodes>
            0 -1 54 -1.0092472657561302e-03</internalNodes>
          <leafValues>
            7.0670634508132935e-01 -2.0758762955665588e-01</leafValues></_>
        <_>
          <internalNodes>
            0 -1 58 -7.5385853415355086e-04</internalNodes>
          <leafValues>
            8.2907927036285400e-01 -1.5924210846424103e-01</leafValues></_>
        <_>
          <internalNodes>
            0 -1 63 -5.3025530651211739e-03</internalNodes>
          <leafValues>
            8.1632649898529053e-01 -1.4905695617198944e-01</leafValues></_></weakClassifiers></_>
    <!-- stage 3 -->
    <_>
      <maxWeakCount>7</maxWeakCount>
      <stageThreshold>-1.2258518934249878e+00</stageThreshold>
      <weakClassifiers>
        <_>
          <internalNodes>
            0 -1 47 -3.3112224936485291e-01</internalNodes>
          <leafValues>
            -6.8109339475631714e-01 7.0616114139556885e-01</leafValues></_>
        <_>
          <internalNodes>
            0 -1 7 -4.5201152563095093e-02</internalNodes>
          <leafValues>
            8.1121557950973511e-01 -2.6485049724578857e-01</leafValues></_>
        <_>
          <internalNodes>
            0 -1 75 -1.9591297954320908e-02</internalNodes>
          <leafValues>
            8.6704343557357788e-01 -2.6162990927696228e-01</leafValues></_>
        <_>
          <internalNodes>
            0 -1 61 -3.2783295959234238e-02</internalNodes>
          <leafValues>
            -6.9396227598190308e-01 3.5090300440788269e-01</leafValues></_>
        <_>
          <internalNodes>
            0 -1 79 1.3429310172796249e-02</internalNodes>
          <leafValues>
            -2.7092173695564270e-01 6.4136403799057007e-01</leafValues></_>
        <_>
          <internalNodes>
            0 -1 69 -2.8106864541769028e-02</internalNodes>
          <leafValues>
            6.9991314411163330e-01 -2.3500257730484009e-01</leafValues></_>
        <_>
          <internalNodes>
            0 -1 19 8.6204432591330260e-05</internalNodes>
          <leafValues>
            2.6932272315025330e-01 -7.8298532962799072e-01</leafValues></_></weakClassifiers></_>
    <!-- stage 4 -->
    <_>
      <maxWeakCount>12</maxWeakCount>
      <stageThreshold>-8.9559948444366455e-01</stageThreshold>
      <weakClassifiers>
        <_>
          <internalNodes>
            0 -1 20 3.4146052785217762e-03</internalNodes>
          <leafValues>
            -4.0293040871620178e-01 6.7307692766189575e-01</leafValues></_>
        <_>
          <internalNodes>
            0 -1 3 -2.6845365762710571e-02</internalNodes>
          <leafValues>
            6.5589976310729980e-01 -2.4332384765148163e-01</leafValues></_>
        <_>
          <internalNodes>
            0 -1 21 9.6585247665643692e-03</internalNodes>
          <leafValues>
            -2.0867319405078888e-01 7.0331150293350220e-01</leafValues></_>
        <_>
          <internalNodes>
            0 -1 15 -4.3263535946607590e-02</internalNodes>
          <leafValues>
            1.4632490277290344e-01 -9.1648733615875244e-01</leafValues></_>
        <_>
          <internalNodes>
            0 -1 12 -1.6145000699907541e-03</internalNodes>
          <leafValues>
            -6.4259845018386841e-01 2.1803151071071625e-01</leafValues></_>
        <_>
          <internalNodes>
            0 -1 25 1.2348222080618143e-03</internalNodes>
          <leafValues>
            -2.1428573131561279e-01 6.5521800518035889e-01</leafValues></_>
        <_>
          <internalNodes>
            0 -1 32 5.2671162411570549e-03</internalNodes>
          <leafValues>
            -2.0267899334430695e-01 6.1502826213836670e-01</leafValues></_>
        <_>
          <internalNodes>
            0 -1 82 -6.7404122091829777e-04</internalNodes>
          <leafValues>
            6.8687713146209717e-01 -2.0367337763309479e-01</leafValues></_>
        <_>
          <internalNodes>
            0 -1 49 -2.9781411867588758e-03</internalNodes>
          <leafValues>
            -7.3906320333480835e-01 2.0150077342987061e-01</leafValues></_>
        <_>
          <internalNodes>
            0 -1 43 2.1980400197207928e-03</internalNodes>
          <leafValues>
            -2.1590456366539001e-01 6.9630229473114014e-01</leafValues></_>
        <_>
          <internalNodes>
            0 -1 51 2.0730644464492798e-03</internalNodes>
          <leafValues>
            -1.6529168188571930e-01 7.8581118583679199e-01</leafValues></_>
        <_>
          <internalNodes>
            0 -1 73 -3.2081943936645985e-04</internalNodes>
          <leafValues>
            4.3822780251502991e-01 -2.6173904538154602e-01</leafValues></_></weakClassifiers></_>
    <!-- stage 5 -->
    <_>
      <maxWeakCount>6</maxWeakCount>
      <stageThreshold>-6.0260909795761108e-01</stageThreshold>
      <weakClassifiers>
        <_>
          <internalNodes>
            0 -1 68 -6.7890450358390808e-02</internalNodes>
          <leafValues>
            -7.0059877634048462e-01 2.6582279801368713e-01</leafValues></_>
        <_>
          <internalNodes>
            0 -1 2 -3.3473856747150421e-02</internalNodes>
          <leafValues>
            6.7634338140487671e-01 -2.5258141756057739e-01</leafValues></_>
        <_>
          <internalNodes>
            0 -1 65 -1.3920791447162628e-02</internalNodes>
          <leafValues>
            -1. 1.5083360671997070e-01</leafValues></_>
        <_>
          <internalNodes>
            0 -1 28 1.1905838618986309e-04</internalNodes>
          <leafValues>
            2.0063211023807526e-01 -6.5960299968719482e-01</leafValues></_>
        <_>
          <internalNodes>
            0 -1 27 -2.7836640365421772e-03</internalNodes>
          <leafValues>
            6.3648706674575806e-01 -2.2911781072616577e-01</leafValues></_>
        <_>
          <internalNodes>
            0 -1 91 -2.3529471945948899e-05</internalNodes>
          <leafValues>
            -6.1728131771087646e-01 2.2822320461273193e-01</leafValues></_></weakClassifiers></_>
    <!-- stage 6 -->
    <_>
      <maxWeakCount>11</maxWeakCount>
      <stageThreshold>-8.5678201913833618e-01</stageThreshold>
      <weakClassifiers>
        <_>
          <internalNodes>
            0 -1 38 7.7112438157200813e-03</internalNodes>
          <leafValues>
            -3.3221477270126343e-01 8.8888889551162720e-01</leafValues></_>
        <_>
          <internalNodes>
            0 -1 53 -1.8619633920025080e-04</internalNodes>
          <leafValues>
            -8.5616070032119751e-01 1.4455749094486237e-01</leafValues></_>
        <_>
          <internalNodes>
            0 -1 13 -4.1550942114554346e-05</internalNodes>
          <leafValues>
            -5.8935225009918213e-01 1.7443606257438660e-01</leafValues></_>
        <_>
          <internalNodes>
            0 -1 1 6.5370390075258911e-05</internalNodes>
          <leafValues>
            2.4975010752677917e-01 -4.2153289914131165e-01</leafValues></_>
        <_>
          <internalNodes>
            0 -1 86 2.1025859750807285e-03</internalNodes>
          <leafValues>
            -1.3930042088031769e-01 6.4448052644729614e-01</leafValues></_>
        <_>
          <internalNodes>
            0 -1 80 -2.2221012040972710e-03</internalNodes>
          <leafValues>
            5.5309504270553589e-01 -1.9957916438579559e-01</leafValues></_>
        <_>
          <internalNodes>
            0 -1 46 -7.9862179700285196e-04</internalNodes>
          <leafValues>
            7.0330685377120972e-01 -1.7970132827758789e-01</leafValues></_>
        <_>
          <internalNodes>
            0 -1 76 1.6106406692415476e-03</internalNodes>
          <leafValues>
            -2.4923548102378845e-01 4.0541628003120422e-01</leafValues></_>
        <_>
          <internalNodes>
            0 -1 16 1.0167260188609362e-03</internalNodes>
          <leafValues>
            2.0693053305149078e-01 -5.4191142320632935e-01</leafValues></_>
        <_>
          <internalNodes>
            0 -1 33 1.7017609206959605e-04</internalNodes>
          <leafValues>
            1.4314681291580200e-01 -6.7938262224197388e-01</leafValues></_>
        <_>
          <internalNodes>
            0 -1 10 -1.1975444067502394e-05</internalNodes>
          <leafValues>
            -5.4445624351501465e-01 1.5975655615329742e-01</leafValues></_></weakClassifiers></_>
    <!-- stage 7 -->
    <_>
      <maxWeakCount>10</maxWeakCount>
      <stageThreshold>-1.3886163234710693e+00</stageThreshold>
      <weakClassifiers>
        <_>
          <internalNodes>
            0 -1 55 4.5876069634687155e-05</internalNodes>
          <leafValues>
            -1.5384615398943424e-02 -7.3333334922790527e-01</leafValues></_>
        <_>
          <internalNodes>
            0 -1 87 -2.5442866899538785e-05</internalNodes>
          <leafValues>
            -6.2873882055282593e-01 1.4971551299095154e-01</leafValues></_>
        <_>
          <internalNodes>
            0 -1 87 2.5243578420486301e-05</internalNodes>
          <leafValues>
            2.1239469945430756e-01 -5.8987194299697876e-01</leafValues></_>
        <_>
          <internalNodes>
            0 -1 29 4.7882916405797005e-03</internalNodes>
          <leafValues>
            -1.7957684397697449e-01 6.8796581029891968e-01</leafValues></_>
        <_>
          <internalNodes>
            0 -1 34 -1.7761118710041046e-02</internalNodes>
          <leafValues>
            6.2858587503433228e-01 -1.8077993392944336e-01</leafValues></_>
        <_>
          <internalNodes>
            0 -1 0 -1.7827725969254971e-04</internalNodes>
          <leafValues>
            -6.2353026866912842e-01 1.7823702096939087e-01</leafValues></_>
        <_>
          <internalNodes>
            0 -1 23 2.1325182169675827e-03</internalNodes>
          <leafValues>
            -2.5076609849929810e-01 4.3694934248924255e-01</leafValues></_>
        <_>
          <internalNodes>
            0 -1 37 -8.8862609118223190e-03</internalNodes>
          <leafValues>
            4.9096161127090454e-01 -2.4067069590091705e-01</leafValues></_>
        <_>
          <internalNodes>
            0 -1 71 -6.4566344022750854e-02</internalNodes>
          <leafValues>
            6.9455772638320923e-01 -1.6051529347896576e-01</leafValues></_>
        <_>
          <internalNodes>
            0 -1 74 2.7414862066507339e-02</internalNodes>
          <leafValues>
            -2.7089503407478333e-01 5.8753454685211182e-01</leafValues></_></weakClassifiers></_>
    <!-- stage 8 -->
    <_>
      <maxWeakCount>13</maxWeakCount>
      <stageThreshold>-1.2400205135345459e+00</stageThreshold>
      <weakClassifiers>
        <_>
          <internalNodes>
            0 -1 4 -6.3880771398544312e-02</internalNodes>
          <leafValues>
            5.7264959812164307e-01 -4.0712946653366089e-01</leafValues></_>
        <_>
          <internalNodes>
            0 -1 11 4.3327730963937938e-05</internalNodes>
          <leafValues>
            2.2438745200634003e-01 -6.1089086532592773e-01</leafValues></_>
        <_>
          <internalNodes>
            0 -1 14 9.0318337082862854e-02</internalNodes>
          <leafValues>
            -1.9840107858181000e-01 8.2594269514083862e-01</leafValues></_>
        <_>
          <internalNodes>
            0 -1 85 -9.4034723588265479e-05</internalNodes>
          <leafValues>
            -5.9864532947540283e-01 2.5059863924980164e-01</leafValues></_>
        <_>
          <internalNodes>
            0 -1 90 3.3916865504579619e-05</internalNodes>
          <leafValues>
            2.0835533738136292e-01 -6.3996481895446777e-01</leafValues></_>
        <_>
          <internalNodes>
            0 -1 57 -2.9578279703855515e-02</internalNodes>
          <leafValues>
            -2.6562738418579102e-01 5.0094264745712280e-01</leafValues></_>
        <_>
          <internalNodes>
            0 -1 89 -1.8709391588345170e-04</internalNodes>
          <leafValues>
            -4.9720296263694763e-01 2.6526108384132385e-01</leafValues></_>
        <_>
          <internalNodes>
            0 -1 84 -9.2484820634126663e-03</internalNodes>
          <leafValues>
            8.0431044101715088e-01 -2.1140772104263306e-01</leafValues></_>
        <_>
          <internalNodes>
            0 -1 17 7.1438946179114282e-05</internalNodes>
          <leafValues>
            2.1960000693798065e-01 -6.6152024269104004e-01</leafValues></_>
        <_>
          <internalNodes>
            0 -1 35 1.3069497421383858e-02</internalNodes>
          <leafValues>
            -2.2765192389488220e-01 6.7491120100021362e-01</leafValues></_>
        <_>
          <internalNodes>
            0 -1 83 2.1958267316222191e-02</internalNodes>
          <leafValues>
            -1.6183035075664520e-01 6.5384846925735474e-01</leafValues></_>
        <_>
          <internalNodes>
            0 -1 81 -2.2661294788122177e-03</internalNodes>
          <leafValues>
            5.1345664262771606e-01 -2.5365433096885681e-01</leafValues></_>
        <_>
          <internalNodes>
            0 -1 88 -5.8697292843135074e-05</internalNodes>
          <leafValues>
            -6.2881326675415039e-01 2.3124077916145325e-01</leafValues></_></weakClassifiers></_>
    <!-- stage 9 -->
    <_>
      <maxWeakCount>10</maxWeakCount>
      <stageThreshold>-8.1053417921066284e-01</stageThreshold>
      <weakClassifiers>
        <_>
          <internalNodes>
            0 -1 5 -2.3835666477680206e-02</internalNodes>
          <leafValues>
            6.6292136907577515e-01 -3.7254902720451355e-01</leafValues></_>
        <_>
          <internalNodes>
            0 -1 67 -3.2649993896484375e-02</internalNodes>
          <leafValues>
            5.4591429233551025e-01 -2.2174005210399628e-01</leafValues></_>
        <_>
          <internalNodes>
            0 -1 52 1.5762330964207649e-02</internalNodes>
          <leafValues>
            -1.5249222517013550e-01 7.0855093002319336e-01</leafValues></_>
        <_>
          <internalNodes>
            0 -1 6 2.5521084666252136e-02</internalNodes>
          <leafValues>
            -1.7866981029510498e-01 7.1585994958877563e-01</leafValues></_>
        <_>
          <internalNodes>
            0 -1 77 -5.8477693528402597e-05</internalNodes>
          <leafValues>
            -5.9743225574493408e-01 2.1424171328544617e-01</leafValues></_>
        <_>
          <internalNodes>
            0 -1 26 -1.4847630262374878e-01</internalNodes>
          <leafValues>
            -6.5253949165344238e-01 2.2671771049499512e-01</leafValues></_>
        <_>
          <internalNodes>
            0 -1 22 4.4464264065027237e-02</internalNodes>
          <leafValues>
            1.2260162830352783e-01 -5.8206510543823242e-01</leafValues></_>
        <_>
          <internalNodes>
            0 -1 9 -7.0664224040228873e-05</internalNodes>
          <leafValues>
            -7.4424892663955688e-01 1.3942453265190125e-01</leafValues></_>
        <_>
          <internalNodes>
            0 -1 8 -6.3114537624642253e-05</internalNodes>
          <leafValues>
            -7.0097923278808594e-01 1.6925506293773651e-01</leafValues></_>
        <_>
          <internalNodes>
            0 -1 70 -5.5994634749367833e-05</internalNodes>
          <leafValues>
            -5.8553600311279297e-01 1.5693026781082153e-01</leafValues></_></weakClassifiers></_></stages>
  <features>
    <_>
      <rects>
        <_>
          0 0 4 2 -1.</_>
        <_>
          2 0 2 2 2.</_></rects>
      <tilted>0</tilted></_>
    <_>
      <rects>
        <_>
          0 0 4 3 -1.</_>
        <_>
          2 0 2 3 2.</_></rects>
      <tilted>0</tilted></_>
    <_>
      <rects>
        <_>
          0 5 8 39 -1.</_>
        <_>
          4 5 4 39 2.</_></rects>
      <tilted>0</tilted></_>
    <_>
      <rects>
        <_>
          0 5 10 32 -1.</_>
        <_>
          5 5 5 32 2.</_></rects>
      <tilted>0</tilted></_>
    <_>
      <rects>
        <_>
          0 5 14 43 -1.</_>
        <_>
          7 5 7 43 2.</_></rects>
      <tilted>0</tilted></_>
    <_>
      <rects>
        <_>
          0 7 10 16 -1.</_>
        <_>
          5 7 5 16 2.</_></rects>
      <tilted>0</tilted></_>
    <_>
      <rects>
        <_>
          0 9 10 25 -1.</_>
        <_>
          5 9 5 25 2.</_></rects>
      <tilted>0</tilted></_>
    <_>
      <rects>
        <_>
          0 10 12 33 -1.</_>
        <_>
          6 10 6 33 2.</_></rects>
      <tilted>0</tilted></_>
    <_>
      <rects>
        <_>
          0 17 2 2 -1.</_>
        <_>
          0 17 1 1 2.</_>
        <_>
          1 18 1 1 2.</_></rects>
      <tilted>0</tilted></_>
    <_>
      <rects>
        <_>
          0 19 2 2 -1.</_>
        <_>
          0 19 1 1 2.</_>
        <_>
          1 20 1 1 2.</_></rects>
      <tilted>0</tilted></_>
    <_>
      <rects>
        <_>
          0 23 2 2 -1.</_>
        <_>
          0 23 1 1 2.</_>
        <_>
          1 24 1 1 2.</_></rects>
      <tilted>0</tilted></_>
    <_>
      <rects>
        <_>
          0 35 2 2 -1.</_>
        <_>
          0 35 1 1 2.</_>
        <_>
          1 36 1 1 2.</_></rects>
      <tilted>0</tilted></_>
    <_>
      <rects>
        <_>
          1 0 20 1 -1.</_>
        <_>
          11 0 10 1 2.</_></rects>
      <tilted>0</tilted></_>
    <_>
      <rects>
        <_>
          1 2 2 2 -1.</_>
        <_>
          2 2 1 2 2.</_></rects>
      <tilted>0</tilted></_>
    <_>
      <rects>
        <_>
          1 3 18 46 -1.</_>
        <_>
          10 3 9 46 2.</_></rects>
      <tilted>0</tilted></_>
    <_>
      <rects>
        <_>
          1 22 35 9 -1.</_>
        <_>
          1 25 35 3 2.</_></rects>
      <tilted>0</tilted></_>
    <_>
      <rects>
        <_>
          1 49 18 1 -1.</_>
        <_>
          10 49 9 1 2.</_></rects>
      <tilted>0</tilted></_>
    <_>
      <rects>
        <_>
          2 48 2 1 -1.</_>
        <_>
          3 48 1 1 2.</_></rects>
      <tilted>0</tilted></_>
    <_>
      <rects>
        <_>
          3 12 15 2 -1.</_>
        <_>
          8 12 5 2 2.</_></rects>
      <tilted>0</tilted></_>
    <_>
      <rects>
        <_>
          4 0 2 2 -1.</_>
        <_>
          5 0 1 2 2.</_></rects>
      <tilted>0</tilted></_>
    <_>
      <rects>
        <_>
          4 1 34 2 -1.</_>
        <_>
          4 2 34 1 2.</_></rects>
      <tilted>0</tilted></_>
    <_>
      <rects>
        <_>
          4 3 6 43 -1.</_>
        <_>
          7 3 3 43 2.</_></rects>
      <tilted>0</tilted></_>
    <_>
      <rects>
        <_>
          5 2 29 36 -1.</_>
        <_>
          5 20 29 18 2.</_></rects>
      <tilted>0</tilted></_>
    <_>
      <rects>
        <_>
          5 6 8 6 -1.</_>
        <_>
          9 6 4 6 2.</_></rects>
      <tilted>0</tilted></_>
    <_>
      <rects>
        <_>
          6 3 31 4 -1.</_>
        <_>
          6 5 31 2 2.</_></rects>
      <tilted>0</tilted></_>
    <_>
      <rects>
        <_>
          6 5 22 2 -1.</_>
        <_>
          6 5 11 1 2.</_>
        <_>
          17 6 11 1 2.</_></rects>
      <tilted>0</tilted></_>
    <_>
      <rects>
        <_>
          6 6 27 34 -1.</_>
        <_>
          6 23 27 17 2.</_></rects>
      <tilted>0</tilted></_>
    <_>
      <rects>
        <_>
          7 17 4 16 -1.</_>
        <_>
          9 17 2 16 2.</_></rects>
      <tilted>0</tilted></_>
    <_>
      <rects>
        <_>
          8 0 4 1 -1.</_>
        <_>
          10 0 2 1 2.</_></rects>
      <tilted>0</tilted></_>
    <_>
      <rects>
        <_>
          8 1 29 2 -1.</_>
        <_>
          8 2 29 1 2.</_></rects>
      <tilted>0</tilted></_>
    <_>
      <rects>
        <_>
          8 40 40 10 -1.</_>
        <_>
          8 45 40 5 2.</_></rects>
      <tilted>0</tilted></_>
    <_>
      <rects>
        <_>
          10 24 2 10 -1.</_>
        <_>
          11 24 1 10 2.</_></rects>
      <tilted>0</tilted></_>
    <_>
      <rects>
        <_>
          10 46 22 4 -1.</_>
        <_>
          10 48 22 2 2.</_></rects>
      <tilted>0</tilted></_>
    <_>
      <rects>
        <_>
          11 0 4 1 -1.</_>
        <_>
          13 0 2 1 2.</_></rects>
      <tilted>0</tilted></_>
    <_>
      <rects>
        <_>
          11 0 37 6 -1.</_>
        <_>
          11 3 37 3 2.</_></rects>
      <tilted>0</tilted></_>
    <_>
      <rects>
        <_>
          11 1 25 6 -1.</_>
        <_>
          11 4 25 3 2.</_></rects>
      <tilted>0</tilted></_>
    <_>
      <rects>
        <_>
          12 0 33 4 -1.</_>
        <_>
          12 2 33 2 2.</_></rects>
      <tilted>0</tilted></_>
    <_>
      <rects>
        <_>
          12 1 7 12 -1.</_>
        <_>
          12 7 7 6 2.</_></rects>
      <tilted>0</tilted></_>
    <_>
      <rects>
        <_>
          12 1 29 2 -1.</_>
        <_>
          12 2 29 1 2.</_></rects>
      <tilted>0</tilted></_>
    <_>
      <rects>
        <_>
          12 4 29 2 -1.</_>
        <_>
          12 5 29 1 2.</_></rects>
      <tilted>0</tilted></_>
    <_>
      <rects>
        <_>
          12 48 17 2 -1.</_>
        <_>
          12 49 17 1 2.</_></rects>
      <tilted>0</tilted></_>
    <_>
      <rects>
        <_>
          13 4 5 10 -1.</_>
        <_>
          13 9 5 5 2.</_></rects>
      <tilted>0</tilted></_>
    <_>
      <rects>
        <_>
          15 1 10 2 -1.</_>
        <_>
          15 2 10 1 2.</_></rects>
      <tilted>0</tilted></_>
    <_>
      <rects>
        <_>
          15 2 18 2 -1.</_>
        <_>
          15 3 18 1 2.</_></rects>
      <tilted>0</tilted></_>
    <_>
      <rects>
        <_>
          15 44 22 4 -1.</_>
        <_>
          15 46 22 2 2.</_></rects>
      <tilted>0</tilted></_>
    <_>
      <rects>
        <_>
          16 2 15 2 -1.</_>
        <_>
          16 3 15 1 2.</_></rects>
      <tilted>0</tilted></_>
    <_>
      <rects>
        <_>
          16 26 10 2 -1.</_>
        <_>
          16 26 5 1 2.</_>
        <_>
          21 27 5 1 2.</_></rects>
      <tilted>0</tilted></_>
    <_>
      <rects>
        <_>
          17 13 27 35 -1.</_>
        <_>
          26 13 9 35 2.</_></rects>
      <tilted>0</tilted></_>
    <_>
      <rects>
        <_>
          18 46 22 2 -1.</_>
        <_>
          18 46 11 1 2.</_>
        <_>
          29 47 11 1 2.</_></rects>
      <tilted>0</tilted></_>
    <_>
      <rects>
        <_>
          18 49 26 1 -1.</_>
        <_>
          31 49 13 1 2.</_></rects>
      <tilted>0</tilted></_>
    <_>
      <rects>
        <_>
          20 2 3 2 -1.</_>
        <_>
          20 3 3 1 2.</_></rects>
      <tilted>0</tilted></_>
    <_>
      <rects>
        <_>
          20 2 30 2 -1.</_>
        <_>
          20 2 15 1 2.</_>
        <_>
          35 3 15 1 2.</_></rects>
      <tilted>0</tilted></_>
    <_>
      <rects>
        <_>
          20 44 27 6 -1.</_>
        <_>
          20 47 27 3 2.</_></rects>
      <tilted>0</tilted></_>
    <_>
      <rects>
        <_>
          21 0 4 1 -1.</_>
        <_>
          23 0 2 1 2.</_></rects>
      <tilted>0</tilted></_>
    <_>
      <rects>
        <_>
          21 46 16 2 -1.</_>
        <_>
          21 47 16 1 2.</_></rects>
      <tilted>0</tilted></_>
    <_>
      <rects>
        <_>
          22 0 2 1 -1.</_>
        <_>
          23 0 1 1 2.</_></rects>
      <tilted>0</tilted></_>
    <_>
      <rects>
        <_>
          22 0 3 6 -1.</_>
        <_>
          22 3 3 3 2.</_></rects>
      <tilted>0</tilted></_>
    <_>
      <rects>
        <_>
          22 7 3 39 -1.</_>
        <_>
          22 20 3 13 2.</_></rects>
      <tilted>0</tilted></_>
    <_>
      <rects>
        <_>
          22 22 7 2 -1.</_>
        <_>
          22 23 7 1 2.</_></rects>
      <tilted>0</tilted></_>
    <_>
      <rects>
        <_>
          24 44 2 5 -1.</_>
        <_>
          25 44 1 5 2.</_></rects>
      <tilted>0</tilted></_>
    <_>
      <rects>
        <_>
          25 0 15 6 -1.</_>
        <_>
          25 3 15 3 2.</_></rects>
      <tilted>0</tilted></_>
    <_>
      <rects>
        <_>
          25 33 15 4 -1.</_>
        <_>
          30 33 5 4 2.</_></rects>
      <tilted>0</tilted></_>
    <_>
      <rects>
        <_>
          27 13 6 2 -1.</_>
        <_>
          27 14 6 1 2.</_></rects>
      <tilted>0</tilted></_>
    <_>
      <rects>
        <_>
          29 4 18 4 -1.</_>
        <_>
          29 6 18 2 2.</_></rects>
      <tilted>0</tilted></_>
    <_>
      <rects>
        <_>
          31 42 2 5 -1.</_>
        <_>
          32 42 1 5 2.</_></rects>
      <tilted>0</tilted></_>
    <_>
      <rects>
        <_>
          31 49 15 1 -1.</_>
        <_>
          36 49 5 1 2.</_></rects>
      <tilted>0</tilted></_>
    <_>
      <rects>
        <_>
          32 1 10 4 -1.</_>
        <_>
          32 3 10 2 2.</_></rects>
      <tilted>0</tilted></_>
    <_>
      <rects>
        <_>
          32 9 18 20 -1.</_>
        <_>
          41 9 9 20 2.</_></rects>
      <tilted>0</tilted></_>
    <_>
      <rects>
        <_>
          33 30 9 18 -1.</_>
        <_>
          33 36 9 6 2.</_></rects>
      <tilted>0</tilted></_>
    <_>
      <rects>
        <_>
          34 16 16 27 -1.</_>
        <_>
          42 16 8 27 2.</_></rects>
      <tilted>0</tilted></_>
    <_>
      <rects>
        <_>
          34 48 2 2 -1.</_>
        <_>
          35 48 1 2 2.</_></rects>
      <tilted>0</tilted></_>
    <_>
      <rects>
        <_>
          36 4 14 43 -1.</_>
        <_>
          43 4 7 43 2.</_></rects>
      <tilted>0</tilted></_>
    <_>
      <rects>
        <_>
          38 1 2 24 -1.</_>
        <_>
          38 9 2 8 2.</_></rects>
      <tilted>0</tilted></_>
    <_>
      <rects>
        <_>
          38 5 2 17 -1.</_>
        <_>
          39 5 1 17 2.</_></rects>
      <tilted>0</tilted></_>
    <_>
      <rects>
        <_>
          38 17 12 32 -1.</_>
        <_>
          44 17 6 32 2.</_></rects>
      <tilted>0</tilted></_>
    <_>
      <rects>
        <_>
          39 18 10 21 -1.</_>
        <_>
          44 18 5 21 2.</_></rects>
      <tilted>0</tilted></_>
    <_>
      <rects>
        <_>
          39 33 10 5 -1.</_>
        <_>
          44 33 5 5 2.</_></rects>
      <tilted>0</tilted></_>
    <_>
      <rects>
        <_>
          39 48 2 2 -1.</_>
        <_>
          40 48 1 2 2.</_></rects>
      <tilted>0</tilted></_>
    <_>
      <rects>
        <_>
          40 13 10 32 -1.</_>
        <_>
          45 13 5 32 2.</_></rects>
      <tilted>0</tilted></_>
    <_>
      <rects>
        <_>
          40 23 10 18 -1.</_>
        <_>
          45 23 5 18 2.</_></rects>
      <tilted>0</tilted></_>
    <_>
      <rects>
        <_>
          40 25 8 6 -1.</_>
        <_>
          44 25 4 6 2.</_></rects>
      <tilted>0</tilted></_>
    <_>
      <rects>
        <_>
          42 2 4 37 -1.</_>
        <_>
          44 2 2 37 2.</_></rects>
      <tilted>0</tilted></_>
    <_>
      <rects>
        <_>
          42 11 2 14 -1.</_>
        <_>
          42 11 1 7 2.</_>
        <_>
          43 18 1 7 2.</_></rects>
      <tilted>0</tilted></_>
    <_>
      <rects>
        <_>
          42 11 8 31 -1.</_>
        <_>
          46 11 4 31 2.</_></rects>
      <tilted>0</tilted></_>
    <_>
      <rects>
        <_>
          42 25 8 11 -1.</_>
        <_>
          46 25 4 11 2.</_></rects>
      <tilted>0</tilted></_>
    <_>
      <rects>
        <_>
          42 35 2 2 -1.</_>
        <_>
          42 36 2 1 2.</_></rects>
      <tilted>0</tilted></_>
    <_>
      <rects>
        <_>
          43 24 4 6 -1.</_>
        <_>
          45 24 2 6 2.</_></rects>
      <tilted>0</tilted></_>
    <_>
      <rects>
        <_>
          48 1 2 1 -1.</_>
        <_>
          49 1 1 1 2.</_></rects>
      <tilted>0</tilted></_>
    <_>
      <rects>
        <_>
          48 6 1 2 -1.</_>
        <_>
          48 7 1 1 2.</_></rects>
      <tilted>0</tilted></_>
    <_>
      <rects>
        <_>
          48 29 2 4 -1.</_>
        <_>
          48 31 2 2 2.</_></rects>
      <tilted>0</tilted></_>
    <_>
      <rects>
        <_>
          48 32 2 2 -1.</_>
        <_>
          48 32 1 1 2.</_>
        <_>
          49 33 1 1 2.</_></rects>
      <tilted>0</tilted></_>
    <_>
      <rects>
        <_>
          49 1 1 2 -1.</_>
        <_>
          49 2 1 1 2.</_></rects>
      <tilted>0</tilted></_></features></cascade>
</opencv_storage>
