<?xml version="1.0"?>
<opencv_storage>
<cascade>
  <stageType>BOOST</stageType>
  <featureType>HAAR</featureType>
  <height>50</height>
  <width>50</width>
  <stageParams>
    <boostType>GAB</boostType>
    <minHitRate>9.9500000476837158e-01</minHitRate>
    <maxFalseAlarm>5.0000000000000000e-01</maxFalseAlarm>
    <weightTrimRate>9.4999999999999996e-01</weightTrimRate>
    <maxDepth>1</maxDepth>
    <maxWeakCount>100</maxWeakCount></stageParams>
  <featureParams>
    <maxCatCount>0</maxCatCount>
    <featSize>1</featSize>
    <mode>BASIC</mode></featureParams>
  <stageNum>20</stageNum>
  <stages>
    <!-- stage 0 -->
    <_>
      <maxWeakCount>2</maxWeakCount>
      <stageThreshold>-6.3248068094253540e-02</stageThreshold>
      <weakClassifiers>
        <_>
          <internalNodes>
            0 -1 36 -5.3023922443389893e-01</internalNodes>
          <leafValues>
            -5.6800001859664917e-01 9.4666665792465210e-01</leafValues></_>
        <_>
          <internalNodes>
            0 -1 81 4.6070670941844583e-04</internalNodes>
          <leafValues>
            5.0475192070007324e-01 -8.9858156442642212e-01</leafValues></_></weakClassifiers></_>
    <!-- stage 1 -->
    <_>
      <maxWeakCount>5</maxWeakCount>
      <stageThreshold>-6.3540107011795044e-01</stageThreshold>
      <weakClassifiers>
        <_>
          <internalNodes>
            0 -1 53 -2.8621873259544373e-01</internalNodes>
          <leafValues>
            -6.4102566242218018e-01 9.0361446142196655e-01</leafValues></_>
        <_>
          <internalNodes>
            0 -1 9 -5.8055407134816051e-04</internalNodes>
          <leafValues>
            -9.5138949155807495e-01 4.3587613105773926e-01</leafValues></_>
        <_>
          <internalNodes>
            0 -1 19 -3.8720737211406231e-03</internalNodes>
          <leafValues>
            9.2812925577163696e-01 -4.5020329952239990e-01</leafValues></_>
        <_>
          <internalNodes>
            0 -1 8 -1.9130165874958038e-01</internalNodes>
          <leafValues>
            -5.2150762081146240e-01 8.8612753152847290e-01</leafValues></_>
        <_>
          <internalNodes>
            0 -1 3 3.2323794584954157e-05</internalNodes>
          <leafValues>
            5.7444000244140625e-01 -8.6617583036422729e-01</leafValues></_></weakClassifiers></_>
    <!-- stage 2 -->
    <_>
      <maxWeakCount>4</maxWeakCount>
      <stageThreshold>-3.6702790856361389e-01</stageThreshold>
      <weakClassifiers>
        <_>
          <internalNodes>
            0 -1 24 -4.9375593662261963e-03</internalNodes>
          <leafValues>
            9.3548387289047241e-01 -4.2028984427452087e-01</leafValues></_>
        <_>
          <internalNodes>
            0 -1 16 8.0952234566211700e-03</internalNodes>
          <leafValues>
            -3.6256754398345947e-01 9.7516858577728271e-01</leafValues></_>
        <_>
          <internalNodes>
            0 -1 84 8.5110077634453773e-03</internalNodes>
          <leafValues>
            -3.5912716388702393e-01 9.3658632040023804e-01</leafValues></_>
        <_>
          <internalNodes>
            0 -1 37 -2.0606912672519684e-01</internalNodes>
          <leafValues>
            -5.2075684070587158e-01 7.8025424480438232e-01</leafValues></_></weakClassifiers></_>
    <!-- stage 3 -->
    <_>
      <maxWeakCount>4</maxWeakCount>
      <stageThreshold>-1.1295274831354618e-02</stageThreshold>
      <weakClassifiers>
        <_>
          <internalNodes>
            0 -1 41 -1.6660641878843307e-02</internalNodes>
          <leafValues>
            8.4126985073089600e-01 -3.8686132431030273e-01</leafValues></_>
        <_>
          <internalNodes>
            0 -1 39 -3.0966699123382568e-02</internalNodes>
          <leafValues>
            -3.8625359535217285e-01 8.6191850900650024e-01</leafValues></_>
        <_>
          <internalNodes>
            0 -1 96 -5.5423650337615982e-05</internalNodes>
          <leafValues>
            -8.3393394947052002e-01 4.4938701391220093e-01</leafValues></_>
        <_>
          <internalNodes>
            0 -1 15 1.6056212189141661e-05</internalNodes>
          <leafValues>
            3.9646309614181519e-01 -8.8054972887039185e-01</leafValues></_></weakClassifiers></_>
    <!-- stage 4 -->
    <_>
      <maxWeakCount>4</maxWeakCount>
      <stageThreshold>-5.2210325002670288e-01</stageThreshold>
      <weakClassifiers>
        <_>
          <internalNodes>
            0 -1 34 -5.0708008930087090e-03</internalNodes>
          <leafValues>
            -5.6250000000000000e-01 5.1923078298568726e-01</leafValues></_>
        <_>
          <internalNodes>
            0 -1 95 5.9479654737515375e-05</internalNodes>
          <leafValues>
            3.8237446546554565e-01 -7.7024078369140625e-01</leafValues></_>
        <_>
          <internalNodes>
            0 -1 2 -1.1194317601621151e-02</internalNodes>
          <leafValues>
            7.6983988285064697e-01 -4.8031559586524963e-01</leafValues></_>
        <_>
          <internalNodes>
            0 -1 59 -3.8716511335223913e-04</internalNodes>
          <leafValues>
            -9.4339287281036377e-01 3.7176504731178284e-01</leafValues></_></weakClassifiers></_>
    <!-- stage 5 -->
    <_>
      <maxWeakCount>3</maxWeakCount>
      <stageThreshold>-7.5137406587600708e-01</stageThreshold>
      <weakClassifiers>
        <_>
          <internalNodes>
            0 -1 32 -9.4078183174133301e-02</internalNodes>
          <leafValues>
            9.5744681358337402e-01 -8.4905660152435303e-01</leafValues></_>
        <_>
          <internalNodes>
            0 -1 30 -1.8820131197571754e-02</internalNodes>
          <leafValues>
            7.8212487697601318e-01 -7.8235238790512085e-01</leafValues></_>
        <_>
          <internalNodes>
            0 -1 5 -1.8474331498146057e-01</internalNodes>
          <leafValues>
            8.9196050167083740e-01 -6.8444228172302246e-01</leafValues></_></weakClassifiers></_>
    <!-- stage 6 -->
    <_>
      <maxWeakCount>4</maxWeakCount>
      <stageThreshold>-9.6681189537048340e-01</stageThreshold>
      <weakClassifiers>
        <_>
          <internalNodes>
            0 -1 26 -3.2545536756515503e-01</internalNodes>
          <leafValues>
            8.8235294818878174e-01 -6.5217393636703491e-01</leafValues></_>
        <_>
          <internalNodes>
            0 -1 73 -1.1403615644667298e-04</internalNodes>
          <leafValues>
            8.8481074571609497e-01 -4.8332139849662781e-01</leafValues></_>
        <_>
          <internalNodes>
            0 -1 23 -1.7922344803810120e-01</internalNodes>
          <leafValues>
            8.8558703660964966e-01 -5.0128793716430664e-01</leafValues></_>
        <_>
          <internalNodes>
            0 -1 54 2.4743745103478432e-02</internalNodes>
          <leafValues>
            6.7495423555374146e-01 -7.1690362691879272e-01</leafValues></_></weakClassifiers></_>
    <!-- stage 7 -->
    <_>
      <maxWeakCount>4</maxWeakCount>
      <stageThreshold>-8.8420867919921875e-01</stageThreshold>
      <weakClassifiers>
        <_>
          <internalNodes>
            0 -1 42 -1.0906425118446350e-01</internalNodes>
          <leafValues>
            9.1549295186996460e-01 -5.0387597084045410e-01</leafValues></_>
        <_>
          <internalNodes>
            0 -1 70 -4.2541028233245015e-04</internalNodes>
          <leafValues>
            9.0350854396820068e-01 -3.2406613230705261e-01</leafValues></_>
        <_>
          <internalNodes>
            0 -1 55 3.5846310202032328e-03</internalNodes>
          <leafValues>
            4.1890332102775574e-01 -9.5250898599624634e-01</leafValues></_>
        <_>
          <internalNodes>
            0 -1 66 -9.5000897999852896e-05</internalNodes>
          <leafValues>
            8.4603589773178101e-01 -4.7516992688179016e-01</leafValues></_></weakClassifiers></_>
    <!-- stage 8 -->
    <_>
      <maxWeakCount>4</maxWeakCount>
      <stageThreshold>-1.0878521203994751e+00</stageThreshold>
      <weakClassifiers>
        <_>
          <internalNodes>
            0 -1 95 -9.8929871455766261e-05</internalNodes>
          <leafValues>
            -8.2278478145599365e-01 5.3719007968902588e-01</leafValues></_>
        <_>
          <internalNodes>
            0 -1 11 -7.3191523551940918e-02</internalNodes>
          <leafValues>
            -4.4569170475006104e-01 9.7825580835342407e-01</leafValues></_>
        <_>
          <internalNodes>
            0 -1 94 4.4611784687731415e-05</internalNodes>
          <leafValues>
            4.8492068052291870e-01 -7.8568798303604126e-01</leafValues></_>
        <_>
          <internalNodes>
            0 -1 47 -8.0443341284990311e-03</internalNodes>
          <leafValues>
            -4.5763507485389709e-01 7.0629566907882690e-01</leafValues></_></weakClassifiers></_>
    <!-- stage 9 -->
    <_>
      <maxWeakCount>6</maxWeakCount>
      <stageThreshold>-8.3526217937469482e-01</stageThreshold>
      <weakClassifiers>
        <_>
          <internalNodes>
            0 -1 49 -1.6222625970840454e-02</internalNodes>
          <leafValues>
            8.9285713434219360e-01 -3.4722220897674561e-01</leafValues></_>
        <_>
          <internalNodes>
            0 -1 91 -1.0063391528092325e-05</internalNodes>
          <leafValues>
            -5.8540934324264526e-01 4.6146640181541443e-01</leafValues></_>
        <_>
          <internalNodes>
            0 -1 1 1.6888682148419321e-04</internalNodes>
          <leafValues>
            3.4974688291549683e-01 -7.9512816667556763e-01</leafValues></_>
        <_>
          <internalNodes>
            0 -1 18 -8.5454899817705154e-03</internalNodes>
          <leafValues>
            9.5634633302688599e-01 -2.8568994998931885e-01</leafValues></_>
        <_>
          <internalNodes>
            0 -1 69 1.3379490002989769e-02</internalNodes>
          <leafValues>
            -3.7536567449569702e-01 7.9827582836151123e-01</leafValues></_>
        <_>
          <internalNodes>
            0 -1 27 -1.4533521607518196e-04</internalNodes>
          <leafValues>
            -6.6696411371231079e-01 4.7022065520286560e-01</leafValues></_></weakClassifiers></_>
    <!-- stage 10 -->
    <_>
      <maxWeakCount>4</maxWeakCount>
      <stageThreshold>-9.8154151439666748e-01</stageThreshold>
      <weakClassifiers>
        <_>
          <internalNodes>
            0 -1 33 -5.3404852747917175e-02</internalNodes>
          <leafValues>
            -6.9230771064758301e-01 7.5000000000000000e-01</leafValues></_>
        <_>
          <internalNodes>
            0 -1 17 -2.7998713776469231e-03</internalNodes>
          <leafValues>
            7.8395760059356689e-01 -4.1869190335273743e-01</leafValues></_>
        <_>
          <internalNodes>
            0 -1 82 -1.7328254878520966e-02</internalNodes>
          <leafValues>
            -6.0803765058517456e-01 5.1910221576690674e-01</leafValues></_>
        <_>
          <internalNodes>
            0 -1 80 -4.4002281501889229e-03</internalNodes>
          <leafValues>
            8.8044142723083496e-01 -4.6515369415283203e-01</leafValues></_></weakClassifiers></_>
    <!-- stage 11 -->
    <_>
      <maxWeakCount>5</maxWeakCount>
      <stageThreshold>-6.1693501472473145e-01</stageThreshold>
      <weakClassifiers>
        <_>
          <internalNodes>
            0 -1 83 2.2279974073171616e-02</internalNodes>
          <leafValues>
            -3.2876712083816528e-01 8.8888889551162720e-01</leafValues></_>
        <_>
          <internalNodes>
            0 -1 71 -1.8332835286855698e-02</internalNodes>
          <leafValues>
            8.0622017383575439e-01 -2.6284876465797424e-01</leafValues></_>
        <_>
          <internalNodes>
            0 -1 85 -4.2188474908471107e-03</internalNodes>
          <leafValues>
            6.7272299528121948e-01 -4.1627845168113708e-01</leafValues></_>
        <_>
          <internalNodes>
            0 -1 20 -1.3940889621153474e-03</internalNodes>
          <leafValues>
            7.4041289091110229e-01 -2.6046574115753174e-01</leafValues></_>
        <_>
          <internalNodes>
            0 -1 10 1.9332831725478172e-03</internalNodes>
          <leafValues>
            -4.1764387488365173e-01 8.2477366924285889e-01</leafValues></_></weakClassifiers></_>
    <!-- stage 12 -->
    <_>
      <maxWeakCount>5</maxWeakCount>
      <stageThreshold>-2.0683121681213379e-01</stageThreshold>
      <weakClassifiers>
        <_>
          <internalNodes>
            0 -1 93 -1.1901451507583261e-03</internalNodes>
          <leafValues>
            7.6666665077209473e-01 -3.2857143878936768e-01</leafValues></_>
        <_>
          <internalNodes>
            0 -1 7 9.3601571279577911e-05</internalNodes>
          <leafValues>
            3.0620920658111572e-01 -9.0010374784469604e-01</leafValues></_>
        <_>
          <internalNodes>
            0 -1 3 1.0604491762933321e-05</internalNodes>
          <leafValues>
            3.0502223968505859e-01 -7.3441714048385620e-01</leafValues></_>
        <_>
          <internalNodes>
            0 -1 21 1.4029849262442440e-04</internalNodes>
          <leafValues>
            3.2234549522399902e-01 -7.4948894977569580e-01</leafValues></_>
        <_>
          <internalNodes>
            0 -1 25 -8.6802154779434204e-02</internalNodes>
          <leafValues>
            3.9447626471519470e-01 -6.2696480751037598e-01</leafValues></_></weakClassifiers></_>
    <!-- stage 13 -->
    <_>
      <maxWeakCount>6</maxWeakCount>
      <stageThreshold>-4.2393752932548523e-01</stageThreshold>
      <weakClassifiers>
        <_>
          <internalNodes>
            0 -1 4 -2.7573764324188232e-02</internalNodes>
          <leafValues>
            8.6363637447357178e-01 -2.4358974397182465e-01</leafValues></_>
        <_>
          <internalNodes>
            0 -1 6 1.0277919500367716e-05</internalNodes>
          <leafValues>
            3.8470974564552307e-01 -5.6923246383666992e-01</leafValues></_>
        <_>
          <internalNodes>
            0 -1 52 -1.1025356128811836e-02</internalNodes>
          <leafValues>
            -7.3906856775283813e-01 3.1243041157722473e-01</leafValues></_>
        <_>
          <internalNodes>
            0 -1 14 -1.1175628060300369e-05</internalNodes>
          <leafValues>
            -7.7646917104721069e-01 2.8896388411521912e-01</leafValues></_>
        <_>
          <internalNodes>
            0 -1 79 -1.4554429799318314e-04</internalNodes>
          <leafValues>
            5.0074642896652222e-01 -4.9447512626647949e-01</leafValues></_>
        <_>
          <internalNodes>
            0 -1 29 1.2669022908085026e-05</internalNodes>
          <leafValues>
            4.0421688556671143e-01 -6.0176515579223633e-01</leafValues></_></weakClassifiers></_>
    <!-- stage 14 -->
    <_>
      <maxWeakCount>5</maxWeakCount>
      <stageThreshold>-4.9744659662246704e-01</stageThreshold>
      <weakClassifiers>
        <_>
          <internalNodes>
            0 -1 40 -6.2962472438812256e-03</internalNodes>
          <leafValues>
            8.9285713434219360e-01 -3.4722220897674561e-01</leafValues></_>
        <_>
          <internalNodes>
            0 -1 44 -3.6884291330352426e-04</internalNodes>
          <leafValues>
            7.5350946187973022e-01 -2.8910195827484131e-01</leafValues></_>
        <_>
          <internalNodes>
            0 -1 56 4.0879292646422982e-04</internalNodes>
          <leafValues>
            -3.2238891720771790e-01 8.6505782604217529e-01</leafValues></_>
        <_>
          <internalNodes>
            0 -1 31 1.0018770117312670e-03</internalNodes>
          <leafValues>
            -2.5499299168586731e-01 9.1404837369918823e-01</leafValues></_>
        <_>
          <internalNodes>
            0 -1 78 1.5925183834042400e-04</internalNodes>
          <leafValues>
            -3.2635188102722168e-01 7.7792322635650635e-01</leafValues></_></weakClassifiers></_>
    <!-- stage 15 -->
    <_>
      <maxWeakCount>6</maxWeakCount>
      <stageThreshold>-5.1411265134811401e-01</stageThreshold>
      <weakClassifiers>
        <_>
          <internalNodes>
            0 -1 0 -2.0277747884392738e-02</internalNodes>
          <leafValues>
            7.4193549156188965e-01 -3.3333334326744080e-01</leafValues></_>
        <_>
          <internalNodes>
            0 -1 13 -6.9789489498361945e-04</internalNodes>
          <leafValues>
            8.6127346754074097e-01 -2.1625150740146637e-01</leafValues></_>
        <_>
          <internalNodes>
            0 -1 43 5.1975820679217577e-04</internalNodes>
          <leafValues>
            -3.0246424674987793e-01 7.0558857917785645e-01</leafValues></_>
        <_>
          <internalNodes>
            0 -1 92 -5.0267819315195084e-03</internalNodes>
          <leafValues>
            8.7249195575714111e-01 -2.5776803493499756e-01</leafValues></_>
        <_>
          <internalNodes>
            0 -1 38 2.4149722885340452e-03</internalNodes>
          <leafValues>
            -1.8289491534233093e-01 8.4598881006240845e-01</leafValues></_>
        <_>
          <internalNodes>
            0 -1 90 2.6522360276430845e-03</internalNodes>
          <leafValues>
            -2.2945338487625122e-01 9.0400785207748413e-01</leafValues></_></weakClassifiers></_>
    <!-- stage 16 -->
    <_>
      <maxWeakCount>5</maxWeakCount>
      <stageThreshold>-5.5389106273651123e-01</stageThreshold>
      <weakClassifiers>
        <_>
          <internalNodes>
            0 -1 64 2.0205381588311866e-05</internalNodes>
          <leafValues>
            -3.2846716046333313e-01 7.1428573131561279e-01</leafValues></_>
        <_>
          <internalNodes>
            0 -1 28 -2.7425342705100775e-04</internalNodes>
          <leafValues>
            7.0479142665863037e-01 -3.0115899443626404e-01</leafValues></_>
        <_>
          <internalNodes>
            0 -1 35 4.1971388272941113e-03</internalNodes>
          <leafValues>
            -3.0405649542808533e-01 9.3799740076065063e-01</leafValues></_>
        <_>
          <internalNodes>
            0 -1 57 -8.6756088421680033e-05</internalNodes>
          <leafValues>
            6.5716391801834106e-01 -3.1738308072090149e-01</leafValues></_>
        <_>
          <internalNodes>
            0 -1 48 1.0370720701757818e-04</internalNodes>
          <leafValues>
            -2.7737233042716980e-01 7.6039773225784302e-01</leafValues></_></weakClassifiers></_>
    <!-- stage 17 -->
    <_>
      <maxWeakCount>7</maxWeakCount>
      <stageThreshold>-9.3273729085922241e-01</stageThreshold>
      <weakClassifiers>
        <_>
          <internalNodes>
            0 -1 77 2.1874255035072565e-03</internalNodes>
          <leafValues>
            -2.7516779303550720e-01 8.0392158031463623e-01</leafValues></_>
        <_>
          <internalNodes>
            0 -1 74 5.0779385492205620e-04</internalNodes>
          <leafValues>
            -2.6312130689620972e-01 5.7854497432708740e-01</leafValues></_>
        <_>
          <internalNodes>
            0 -1 86 -8.6183659732341766e-05</internalNodes>
          <leafValues>
            -6.9427478313446045e-01 3.0094233155250549e-01</leafValues></_>
        <_>
          <internalNodes>
            0 -1 72 -3.1660671811550856e-04</internalNodes>
          <leafValues>
            7.0958691835403442e-01 -2.8643885254859924e-01</leafValues></_>
        <_>
          <internalNodes>
            0 -1 60 7.2577211540192366e-05</internalNodes>
          <leafValues>
            -3.8609543442726135e-01 5.1214569807052612e-01</leafValues></_>
        <_>
          <internalNodes>
            0 -1 76 1.7292381016886793e-05</internalNodes>
          <leafValues>
            -3.2314226031303406e-01 6.6477406024932861e-01</leafValues></_>
        <_>
          <internalNodes>
            0 -1 65 4.0112216956913471e-03</internalNodes>
          <leafValues>
            3.0028599500656128e-01 -7.8421574831008911e-01</leafValues></_></weakClassifiers></_>
    <!-- stage 18 -->
    <_>
      <maxWeakCount>8</maxWeakCount>
      <stageThreshold>-6.5568578243255615e-01</stageThreshold>
      <weakClassifiers>
        <_>
          <internalNodes>
            0 -1 68 -4.9582647625356913e-04</internalNodes>
          <leafValues>
            7.2000002861022949e-01 -2.3999999463558197e-01</leafValues></_>
        <_>
          <internalNodes>
            0 -1 45 7.5591355562210083e-04</internalNodes>
          <leafValues>
            -3.4378364682197571e-01 5.1269543170928955e-01</leafValues></_>
        <_>
          <internalNodes>
            0 -1 12 2.1645333617925644e-03</internalNodes>
          <leafValues>
            -2.3338940739631653e-01 8.4430938959121704e-01</leafValues></_>
        <_>
          <internalNodes>
            0 -1 87 -4.3828628258779645e-04</internalNodes>
          <leafValues>
            7.2657275199890137e-01 -2.9203364253044128e-01</leafValues></_>
        <_>
          <internalNodes>
            0 -1 50 -7.6754046604037285e-03</internalNodes>
          <leafValues>
            -5.3420603275299072e-01 4.8172396421432495e-01</leafValues></_>
        <_>
          <internalNodes>
            0 -1 67 3.3483961597084999e-03</internalNodes>
          <leafValues>
            -2.5204831361770630e-01 8.1504601240158081e-01</leafValues></_>
        <_>
          <internalNodes>
            0 -1 63 -3.9311377331614494e-03</internalNodes>
          <leafValues>
            9.0412253141403198e-01 -2.6466503739356995e-01</leafValues></_>
        <_>
          <internalNodes>
            0 -1 46 -3.2901449594646692e-04</internalNodes>
          <leafValues>
            6.4776802062988281e-01 -3.6796879768371582e-01</leafValues></_></weakClassifiers></_>
    <!-- stage 19 -->
    <_>
      <maxWeakCount>8</maxWeakCount>
      <stageThreshold>-6.4910143613815308e-01</stageThreshold>
      <weakClassifiers>
        <_>
          <internalNodes>
            0 -1 22 -6.3800700008869171e-03</internalNodes>
          <leafValues>
            7.6923078298568726e-01 -2.7027025818824768e-01</leafValues></_>
        <_>
          <internalNodes>
            0 -1 89 -3.0358785807038657e-05</internalNodes>
          <leafValues>
            -7.1960604190826416e-01 2.7362218499183655e-01</leafValues></_>
        <_>
          <internalNodes>
            0 -1 75 -9.8126611192128621e-06</internalNodes>
          <leafValues>
            5.4683482646942139e-01 -3.2734161615371704e-01</leafValues></_>
        <_>
          <internalNodes>
            0 -1 51 -1.2251898879185319e-03</internalNodes>
          <leafValues>
            5.9451770782470703e-01 -3.4044381976127625e-01</leafValues></_>
        <_>
          <internalNodes>
            0 -1 58 4.2652842239476740e-05</internalNodes>
          <leafValues>
            3.2117831707000732e-01 -8.1472980976104736e-01</leafValues></_>
        <_>
          <internalNodes>
            0 -1 88 -2.2928980179131031e-03</internalNodes>
          <leafValues>
            8.5405230522155762e-01 -3.3093729615211487e-01</leafValues></_>
        <_>
          <internalNodes>
            0 -1 61 4.2097428813576698e-03</internalNodes>
          <leafValues>
            -2.7444675564765930e-01 6.5760505199432373e-01</leafValues></_>
        <_>
          <internalNodes>
            0 -1 62 -1.0565370321273804e-03</internalNodes>
          <leafValues>
            6.3444608449935913e-01 -3.7078228592872620e-01</leafValues></_></weakClassifiers></_></stages>
  <features>
    <_>
      <rects>
        <_>
          0 0 34 6 -1.</_>
        <_>
          0 3 34 3 2.</_></rects>
      <tilted>0</tilted></_>
    <_>
      <rects>
        <_>
          0 1 4 4 -1.</_>
        <_>
          0 1 2 2 2.</_>
        <_>
          2 3 2 2 2.</_></rects>
      <tilted>0</tilted></_>
    <_>
      <rects>
        <_>
          0 1 48 4 -1.</_>
        <_>
          0 3 48 2 2.</_></rects>
      <tilted>0</tilted></_>
    <_>
      <rects>
        <_>
          0 4 2 2 -1.</_>
        <_>
          0 4 1 1 2.</_>
        <_>
          1 5 1 1 2.</_></rects>
      <tilted>0</tilted></_>
    <_>
      <rects>
        <_>
          0 4 6 46 -1.</_>
        <_>
          3 4 3 46 2.</_></rects>
      <tilted>0</tilted></_>
    <_>
      <rects>
        <_>
          0 7 42 18 -1.</_>
        <_>
          0 13 42 6 2.</_></rects>
      <tilted>0</tilted></_>
    <_>
      <rects>
        <_>
          0 9 1 2 -1.</_>
        <_>
          0 10 1 1 2.</_></rects>
      <tilted>0</tilted></_>
    <_>
      <rects>
        <_>
          0 9 2 2 -1.</_>
        <_>
          0 9 1 1 2.</_>
        <_>
          1 10 1 1 2.</_></rects>
      <tilted>0</tilted></_>
    <_>
      <rects>
        <_>
          0 9 15 39 -1.</_>
        <_>
          5 9 5 39 2.</_></rects>
      <tilted>0</tilted></_>
    <_>
      <rects>
        <_>
          0 15 4 2 -1.</_>
        <_>
          0 16 4 1 2.</_></rects>
      <tilted>0</tilted></_>
    <_>
      <rects>
        <_>
          0 23 8 4 -1.</_>
        <_>
          4 23 4 4 2.</_></rects>
      <tilted>0</tilted></_>
    <_>
      <rects>
        <_>
          0 43 46 6 -1.</_>
        <_>
          0 45 46 2 2.</_></rects>
      <tilted>0</tilted></_>
    <_>
      <rects>
        <_>
          0 48 28 2 -1.</_>
        <_>
          0 48 14 1 2.</_>
        <_>
          14 49 14 1 2.</_></rects>
      <tilted>0</tilted></_>
    <_>
      <rects>
        <_>
          1 1 14 2 -1.</_>
        <_>
          1 1 7 1 2.</_>
        <_>
          8 2 7 1 2.</_></rects>
      <tilted>0</tilted></_>
    <_>
      <rects>
        <_>
          1 3 2 1 -1.</_>
        <_>
          2 3 1 1 2.</_></rects>
      <tilted>0</tilted></_>
    <_>
      <rects>
        <_>
          1 4 2 2 -1.</_>
        <_>
          1 4 1 1 2.</_>
        <_>
          2 5 1 1 2.</_></rects>
      <tilted>0</tilted></_>
    <_>
      <rects>
        <_>
          1 12 8 30 -1.</_>
        <_>
          5 12 4 30 2.</_></rects>
      <tilted>0</tilted></_>
    <_>
      <rects>
        <_>
          1 26 6 7 -1.</_>
        <_>
          4 26 3 7 2.</_></rects>
      <tilted>0</tilted></_>
    <_>
      <rects>
        <_>
          1 27 6 13 -1.</_>
        <_>
          4 27 3 13 2.</_></rects>
      <tilted>0</tilted></_>
    <_>
      <rects>
        <_>
          1 28 6 9 -1.</_>
        <_>
          4 28 3 9 2.</_></rects>
      <tilted>0</tilted></_>
    <_>
      <rects>
        <_>
          1 32 6 4 -1.</_>
        <_>
          4 32 3 4 2.</_></rects>
      <tilted>0</tilted></_>
    <_>
      <rects>
        <_>
          1 38 2 2 -1.</_>
        <_>
          1 39 2 1 2.</_></rects>
      <tilted>0</tilted></_>
    <_>
      <rects>
        <_>
          2 1 6 17 -1.</_>
        <_>
          5 1 3 17 2.</_></rects>
      <tilted>0</tilted></_>
    <_>
      <rects>
        <_>
          2 4 42 15 -1.</_>
        <_>
          2 9 42 5 2.</_></rects>
      <tilted>0</tilted></_>
    <_>
      <rects>
        <_>
          2 7 4 40 -1.</_>
        <_>
          4 7 2 40 2.</_></rects>
      <tilted>0</tilted></_>
    <_>
      <rects>
        <_>
          2 14 19 18 -1.</_>
        <_>
          2 20 19 6 2.</_></rects>
      <tilted>0</tilted></_>
    <_>
      <rects>
        <_>
          2 16 42 30 -1.</_>
        <_>
          2 26 42 10 2.</_></rects>
      <tilted>0</tilted></_>
    <_>
      <rects>
        <_>
          2 38 4 2 -1.</_>
        <_>
          2 39 4 1 2.</_></rects>
      <tilted>0</tilted></_>
    <_>
      <rects>
        <_>
          3 25 2 5 -1.</_>
        <_>
          4 25 1 5 2.</_></rects>
      <tilted>0</tilted></_>
    <_>
      <rects>
        <_>
          4 0 1 2 -1.</_>
        <_>
          4 1 1 1 2.</_></rects>
      <tilted>0</tilted></_>
    <_>
      <rects>
        <_>
          4 4 5 18 -1.</_>
        <_>
          4 10 5 6 2.</_></rects>
      <tilted>0</tilted></_>
    <_>
      <rects>
        <_>
          4 4 19 2 -1.</_>
        <_>
          4 5 19 1 2.</_></rects>
      <tilted>0</tilted></_>
    <_>
      <rects>
        <_>
          5 6 43 9 -1.</_>
        <_>
          5 9 43 3 2.</_></rects>
      <tilted>0</tilted></_>
    <_>
      <rects>
        <_>
          5 14 45 3 -1.</_>
        <_>
          5 15 45 1 2.</_></rects>
      <tilted>0</tilted></_>
    <_>
      <rects>
        <_>
          5 44 15 1 -1.</_>
        <_>
          10 44 5 1 2.</_></rects>
      <tilted>0</tilted></_>
    <_>
      <rects>
        <_>
          5 48 33 2 -1.</_>
        <_>
          5 49 33 1 2.</_></rects>
      <tilted>0</tilted></_>
    <_>
      <rects>
        <_>
          6 5 39 40 -1.</_>
        <_>
          19 5 13 40 2.</_></rects>
      <tilted>0</tilted></_>
    <_>
      <rects>
        <_>
          6 5 18 36 -1.</_>
        <_>
          6 17 18 12 2.</_></rects>
      <tilted>0</tilted></_>
    <_>
      <rects>
        <_>
          6 46 39 2 -1.</_>
        <_>
          6 47 39 1 2.</_></rects>
      <tilted>0</tilted></_>
    <_>
      <rects>
        <_>
          6 46 39 3 -1.</_>
        <_>
          6 47 39 1 2.</_></rects>
      <tilted>0</tilted></_>
    <_>
      <rects>
        <_>
          8 0 9 6 -1.</_>
        <_>
          8 3 9 3 2.</_></rects>
      <tilted>0</tilted></_>
    <_>
      <rects>
        <_>
          8 0 35 6 -1.</_>
        <_>
          8 3 35 3 2.</_></rects>
      <tilted>0</tilted></_>
    <_>
      <rects>
        <_>
          8 0 35 9 -1.</_>
        <_>
          8 3 35 3 2.</_></rects>
      <tilted>0</tilted></_>
    <_>
      <rects>
        <_>
          8 6 2 16 -1.</_>
        <_>
          9 6 1 16 2.</_></rects>
      <tilted>0</tilted></_>
    <_>
      <rects>
        <_>
          9 47 22 2 -1.</_>
        <_>
          9 47 11 1 2.</_>
        <_>
          20 48 11 1 2.</_></rects>
      <tilted>0</tilted></_>
    <_>
      <rects>
        <_>
          10 36 6 9 -1.</_>
        <_>
          13 36 3 9 2.</_></rects>
      <tilted>0</tilted></_>
    <_>
      <rects>
        <_>
          10 36 16 4 -1.</_>
        <_>
          10 36 8 2 2.</_>
        <_>
          18 38 8 2 2.</_></rects>
      <tilted>0</tilted></_>
    <_>
      <rects>
        <_>
          10 39 9 3 -1.</_>
        <_>
          13 39 3 3 2.</_></rects>
      <tilted>0</tilted></_>
    <_>
      <rects>
        <_>
          11 23 2 2 -1.</_>
        <_>
          12 23 1 2 2.</_></rects>
      <tilted>0</tilted></_>
    <_>
      <rects>
        <_>
          12 0 25 6 -1.</_>
        <_>
          12 3 25 3 2.</_></rects>
      <tilted>0</tilted></_>
    <_>
      <rects>
        <_>
          12 22 34 28 -1.</_>
        <_>
          12 22 17 14 2.</_>
        <_>
          29 36 17 14 2.</_></rects>
      <tilted>0</tilted></_>
    <_>
      <rects>
        <_>
          12 23 18 4 -1.</_>
        <_>
          12 23 9 2 2.</_>
        <_>
          21 25 9 2 2.</_></rects>
      <tilted>0</tilted></_>
    <_>
      <rects>
        <_>
          12 40 3 9 -1.</_>
        <_>
          13 40 1 9 2.</_></rects>
      <tilted>0</tilted></_>
    <_>
      <rects>
        <_>
          13 8 33 24 -1.</_>
        <_>
          13 16 33 8 2.</_></rects>
      <tilted>0</tilted></_>
    <_>
      <rects>
        <_>
          13 28 22 16 -1.</_>
        <_>
          24 28 11 16 2.</_></rects>
      <tilted>0</tilted></_>
    <_>
      <rects>
        <_>
          13 49 26 1 -1.</_>
        <_>
          26 49 13 1 2.</_></rects>
      <tilted>0</tilted></_>
    <_>
      <rects>
        <_>
          14 7 4 4 -1.</_>
        <_>
          14 9 4 2 2.</_></rects>
      <tilted>0</tilted></_>
    <_>
      <rects>
        <_>
          14 47 6 2 -1.</_>
        <_>
          14 47 3 1 2.</_>
        <_>
          17 48 3 1 2.</_></rects>
      <tilted>0</tilted></_>
    <_>
      <rects>
        <_>
          15 0 2 1 -1.</_>
        <_>
          16 0 1 1 2.</_></rects>
      <tilted>0</tilted></_>
    <_>
      <rects>
        <_>
          15 1 2 3 -1.</_>
        <_>
          16 1 1 3 2.</_></rects>
      <tilted>0</tilted></_>
    <_>
      <rects>
        <_>
          17 5 2 29 -1.</_>
        <_>
          18 5 1 29 2.</_></rects>
      <tilted>0</tilted></_>
    <_>
      <rects>
        <_>
          19 41 30 8 -1.</_>
        <_>
          19 41 15 4 2.</_>
        <_>
          34 45 15 4 2.</_></rects>
      <tilted>0</tilted></_>
    <_>
      <rects>
        <_>
          20 5 30 2 -1.</_>
        <_>
          20 5 15 1 2.</_>
        <_>
          35 6 15 1 2.</_></rects>
      <tilted>0</tilted></_>
    <_>
      <rects>
        <_>
          20 45 18 4 -1.</_>
        <_>
          20 47 18 2 2.</_></rects>
      <tilted>0</tilted></_>
    <_>
      <rects>
        <_>
          22 24 2 2 -1.</_>
        <_>
          22 24 1 1 2.</_>
        <_>
          23 25 1 1 2.</_></rects>
      <tilted>0</tilted></_>
    <_>
      <rects>
        <_>
          23 26 8 18 -1.</_>
        <_>
          23 26 4 9 2.</_>
        <_>
          27 35 4 9 2.</_></rects>
      <tilted>0</tilted></_>
    <_>
      <rects>
        <_>
          23 27 2 8 -1.</_>
        <_>
          23 27 1 4 2.</_>
        <_>
          24 31 1 4 2.</_></rects>
      <tilted>0</tilted></_>
    <_>
      <rects>
        <_>
          23 43 10 6 -1.</_>
        <_>
          23 46 10 3 2.</_></rects>
      <tilted>0</tilted></_>
    <_>
      <rects>
        <_>
          25 0 4 2 -1.</_>
        <_>
          25 1 4 1 2.</_></rects>
      <tilted>0</tilted></_>
    <_>
      <rects>
        <_>
          25 3 22 10 -1.</_>
        <_>
          25 8 22 5 2.</_></rects>
      <tilted>0</tilted></_>
    <_>
      <rects>
        <_>
          27 6 10 4 -1.</_>
        <_>
          27 6 5 2 2.</_>
        <_>
          32 8 5 2 2.</_></rects>
      <tilted>0</tilted></_>
    <_>
      <rects>
        <_>
          27 7 14 26 -1.</_>
        <_>
          34 7 7 26 2.</_></rects>
      <tilted>0</tilted></_>
    <_>
      <rects>
        <_>
          28 25 10 2 -1.</_>
        <_>
          28 25 5 1 2.</_>
        <_>
          33 26 5 1 2.</_></rects>
      <tilted>0</tilted></_>
    <_>
      <rects>
        <_>
          29 0 1 6 -1.</_>
        <_>
          29 3 1 3 2.</_></rects>
      <tilted>0</tilted></_>
    <_>
      <rects>
        <_>
          30 2 14 4 -1.</_>
        <_>
          30 2 7 2 2.</_>
        <_>
          37 4 7 2 2.</_></rects>
      <tilted>0</tilted></_>
    <_>
      <rects>
        <_>
          32 3 2 1 -1.</_>
        <_>
          33 3 1 1 2.</_></rects>
      <tilted>0</tilted></_>
    <_>
      <rects>
        <_>
          35 24 2 2 -1.</_>
        <_>
          35 24 1 1 2.</_>
        <_>
          36 25 1 1 2.</_></rects>
      <tilted>0</tilted></_>
    <_>
      <rects>
        <_>
          36 0 14 4 -1.</_>
        <_>
          36 0 7 2 2.</_>
        <_>
          43 2 7 2 2.</_></rects>
      <tilted>0</tilted></_>
    <_>
      <rects>
        <_>
          38 6 8 2 -1.</_>
        <_>
          38 6 4 1 2.</_>
        <_>
          42 7 4 1 2.</_></rects>
      <tilted>0</tilted></_>
    <_>
      <rects>
        <_>
          39 1 2 15 -1.</_>
        <_>
          40 1 1 15 2.</_></rects>
      <tilted>0</tilted></_>
    <_>
      <rects>
        <_>
          39 12 6 20 -1.</_>
        <_>
          42 12 3 20 2.</_></rects>
      <tilted>0</tilted></_>
    <_>
      <rects>
        <_>
          40 26 9 2 -1.</_>
        <_>
          40 27 9 1 2.</_></rects>
      <tilted>0</tilted></_>
    <_>
      <rects>
        <_>
          41 13 6 6 -1.</_>
        <_>
          41 15 6 2 2.</_></rects>
      <tilted>0</tilted></_>
    <_>
      <rects>
        <_>
          42 0 8 45 -1.</_>
        <_>
          46 0 4 45 2.</_></rects>
      <tilted>0</tilted></_>
    <_>
      <rects>
        <_>
          42 22 8 26 -1.</_>
        <_>
          46 22 4 26 2.</_></rects>
      <tilted>0</tilted></_>
    <_>
      <rects>
        <_>
          43 10 6 31 -1.</_>
        <_>
          46 10 3 31 2.</_></rects>
      <tilted>0</tilted></_>
    <_>
      <rects>
        <_>
          44 0 6 1 -1.</_>
        <_>
          47 0 3 1 2.</_></rects>
      <tilted>0</tilted></_>
    <_>
      <rects>
        <_>
          44 23 6 1 -1.</_>
        <_>
          47 23 3 1 2.</_></rects>
      <tilted>0</tilted></_>
    <_>
      <rects>
        <_>
          45 29 4 6 -1.</_>
        <_>
          47 29 2 6 2.</_></rects>
      <tilted>0</tilted></_>
    <_>
      <rects>
        <_>
          45 48 2 1 -1.</_>
        <_>
          46 48 1 1 2.</_></rects>
      <tilted>0</tilted></_>
    <_>
      <rects>
        <_>
          46 0 2 40 -1.</_>
        <_>
          47 0 1 40 2.</_></rects>
      <tilted>0</tilted></_>
    <_>
      <rects>
        <_>
          46 1 2 1 -1.</_>
        <_>
          47 1 1 1 2.</_></rects>
      <tilted>0</tilted></_>
    <_>
      <rects>
        <_>
          46 10 4 21 -1.</_>
        <_>
          48 10 2 21 2.</_></rects>
      <tilted>0</tilted></_>
    <_>
      <rects>
        <_>
          47 46 3 1 -1.</_>
        <_>
          48 46 1 1 2.</_></rects>
      <tilted>0</tilted></_>
    <_>
      <rects>
        <_>
          48 0 2 4 -1.</_>
        <_>
          48 0 1 2 2.</_>
        <_>
          49 2 1 2 2.</_></rects>
      <tilted>0</tilted></_>
    <_>
      <rects>
        <_>
          48 1 2 4 -1.</_>
        <_>
          48 1 1 2 2.</_>
        <_>
          49 3 1 2 2.</_></rects>
      <tilted>0</tilted></_>
    <_>
      <rects>
        <_>
          49 6 1 2 -1.</_>
        <_>
          49 7 1 1 2.</_></rects>
      <tilted>0</tilted></_></features></cascade>
</opencv_storage>
