<?xml version="1.0"?>
<opencv_storage>
<stage12>
  <maxWeakCount>5</maxWeakCount>
  <stageThreshold>-2.0683121681213379e-01</stageThreshold>
  <weakClassifiers>
    <_>
      <internalNodes>
        0 -1 3019736 -1.1901451507583261e-03</internalNodes>
      <leafValues>
        7.6666665077209473e-01 -3.2857143878936768e-01</leafValues></_>
    <_>
      <internalNodes>
        0 -1 39103 9.3601571279577911e-05</internalNodes>
      <leafValues>
        3.0620920658111572e-01 -9.0010374784469604e-01</leafValues></_>
    <_>
      <internalNodes>
        0 -1 18308 1.0604491762933321e-05</internalNodes>
      <leafValues>
        3.0502223968505859e-01 -7.3441714048385620e-01</leafValues></_>
    <_>
      <internalNodes>
        0 -1 229382 1.4029849262442440e-04</internalNodes>
      <leafValues>
        3.2234549522399902e-01 -7.4948894977569580e-01</leafValues></_>
    <_>
      <internalNodes>
        0 -1 293813 -8.6802154779434204e-02</internalNodes>
      <leafValues>
        3.9447626471519470e-01 -6.2696480751037598e-01</leafValues></_></weakClassifiers></stage12>
</opencv_storage>
