<?xml version="1.0"?>
<opencv_storage>
<stage1>
  <maxWeakCount>5</maxWeakCount>
  <stageThreshold>-6.3540107011795044e-01</stageThreshold>
  <weakClassifiers>
    <_>
      <internalNodes>
        0 -1 1394256 -2.8621873259544373e-01</internalNodes>
      <leafValues>
        -6.4102566242218018e-01 9.0361446142196655e-01</leafValues></_>
    <_>
      <internalNodes>
        0 -1 61216 -5.8055407134816051e-04</internalNodes>
      <leafValues>
        -9.5138949155807495e-01 4.3587613105773926e-01</leafValues></_>
    <_>
      <internalNodes>
        0 -1 213626 -3.8720737211406231e-03</internalNodes>
      <leafValues>
        9.2812925577163696e-01 -4.5020329952239990e-01</leafValues></_>
    <_>
      <internalNodes>
        0 -1 39769 -1.9130165874958038e-01</internalNodes>
      <leafValues>
        -5.2150762081146240e-01 8.8612753152847290e-01</leafValues></_>
    <_>
      <internalNodes>
        0 -1 18308 3.2323794584954157e-05</internalNodes>
      <leafValues>
        5.7444000244140625e-01 -8.6617583036422729e-01</leafValues></_></weakClassifiers></stage1>
</opencv_storage>
