<?xml version="1.0"?>
<opencv_storage>
<stage7>
  <maxWeakCount>10</maxWeakCount>
  <stageThreshold>-1.3886163234710693e+00</stageThreshold>
  <weakClassifiers>
    <_>
      <internalNodes>
        0 -1 2072327 4.5876069634687155e-05</internalNodes>
      <leafValues>
        -1.5384615398943424e-02 -7.3333334922790527e-01</leafValues></_>
    <_>
      <internalNodes>
        0 -1 3019933 -2.5442866899538785e-05</internalNodes>
      <leafValues>
        -6.2873882055282593e-01 1.4971551299095154e-01</leafValues></_>
    <_>
      <internalNodes>
        0 -1 3019933 2.5243578420486301e-05</internalNodes>
      <leafValues>
        2.1239469945430756e-01 -5.8987194299697876e-01</leafValues></_>
    <_>
      <internalNodes>
        0 -1 895487 4.7882916405797005e-03</internalNodes>
      <leafValues>
        -1.7957684397697449e-01 6.8796581029891968e-01</leafValues></_>
    <_>
      <internalNodes>
        0 -1 1185665 -1.7761118710041046e-02</internalNodes>
      <leafValues>
        6.2858587503433228e-01 -1.8077993392944336e-01</leafValues></_>
    <_>
      <internalNodes>
        0 -1 171 -1.7827725969254971e-04</internalNodes>
      <leafValues>
        -6.2353026866912842e-01 1.7823702096939087e-01</leafValues></_>
    <_>
      <internalNodes>
        0 -1 598110 2.1325182169675827e-03</internalNodes>
      <leafValues>
        -2.5076609849929810e-01 4.3694934248924255e-01</leafValues></_>
    <_>
      <internalNodes>
        0 -1 1279653 -8.8862609118223190e-03</internalNodes>
      <leafValues>
        4.9096161127090454e-01 -2.4067069590091705e-01</leafValues></_>
    <_>
      <internalNodes>
        0 -1 2790921 -6.4566344022750854e-02</internalNodes>
      <leafValues>
        6.9455772638320923e-01 -1.6051529347896576e-01</leafValues></_>
    <_>
      <internalNodes>
        0 -1 2864615 2.7414862066507339e-02</internalNodes>
      <leafValues>
        -2.7089503407478333e-01 5.8753454685211182e-01</leafValues></_></weakClassifiers></stage7>
</opencv_storage>
