<?xml version="1.0"?>
<opencv_storage>
<stage13>
  <maxWeakCount>14</maxWeakCount>
  <stageThreshold>-9.1258555650711060e-01</stageThreshold>
  <weakClassifiers>
    <_>
      <internalNodes>
        0 -1 887032 1.4018442481756210e-02</internalNodes>
      <leafValues>
        -3.9312976598739624e-01 4.4444444775581360e-01</leafValues></_>
    <_>
      <internalNodes>
        0 -1 2072031 -6.1587803065776825e-03</internalNodes>
      <leafValues>
        7.3177343606948853e-01 -1.3670153915882111e-01</leafValues></_>
    <_>
      <internalNodes>
        0 -1 2979611 1.2789179891115054e-05</internalNodes>
      <leafValues>
        1.8402419984340668e-01 -4.5167177915573120e-01</leafValues></_>
    <_>
      <internalNodes>
        0 -1 1283116 2.1448610350489616e-03</internalNodes>
      <leafValues>
        -1.5373332798480988e-01 4.8805204033851624e-01</leafValues></_>
    <_>
      <internalNodes>
        0 -1 3013487 -2.4954615582828410e-05</internalNodes>
      <leafValues>
        -5.5745857954025269e-01 1.6316710412502289e-01</leafValues></_>
    <_>
      <internalNodes>
        0 -1 2922362 -2.2185603156685829e-03</internalNodes>
      <leafValues>
        -7.6759201288223267e-01 9.7751028835773468e-02</leafValues></_>
    <_>
      <internalNodes>
        0 -1 2603679 4.8810197040438652e-04</internalNodes>
      <leafValues>
        -1.8603572249412537e-01 4.3195313215255737e-01</leafValues></_>
    <_>
      <internalNodes>
        0 -1 1713197 1.5677858027629554e-04</internalNodes>
      <leafValues>
        1.5031073987483978e-01 -6.9691050052642822e-01</leafValues></_>
    <_>
      <internalNodes>
        0 -1 1373061 -3.7245557177811861e-03</internalNodes>
      <leafValues>
        6.9130790233612061e-01 -1.5217205882072449e-01</leafValues></_>
    <_>
      <internalNodes>
        0 -1 2588388 8.4417555481195450e-03</internalNodes>
      <leafValues>
        1.0882995277643204e-01 -1.</leafValues></_>
    <_>
      <internalNodes>
        0 -1 1434937 5.8456021361052990e-04</internalNodes>
      <leafValues>
        -2.5390961766242981e-01 3.3081561326980591e-01</leafValues></_>
    <_>
      <internalNodes>
        0 -1 87088 -1.7342352293781005e-05</internalNodes>
      <leafValues>
        -4.8338702321052551e-01 1.7120796442031860e-01</leafValues></_>
    <_>
      <internalNodes>
        0 -1 2598802 -3.6707069375552237e-04</internalNodes>
      <leafValues>
        4.0591213107109070e-01 -2.4497392773628235e-01</leafValues></_>
    <_>
      <internalNodes>
        0 -1 463654 3.1067307572811842e-03</internalNodes>
      <leafValues>
        -2.0344018936157227e-01 4.6865513920783997e-01</leafValues></_></weakClassifiers></stage13>
</opencv_storage>
