<?xml version="1.0"?>
<opencv_storage>
<stage14>
  <maxWeakCount>5</maxWeakCount>
  <stageThreshold>-4.9744659662246704e-01</stageThreshold>
  <weakClassifiers>
    <_>
      <internalNodes>
        0 -1 889490 -6.2962472438812256e-03</internalNodes>
      <leafValues>
        8.9285713434219360e-01 -3.4722220897674561e-01</leafValues></_>
    <_>
      <internalNodes>
        0 -1 1085948 -3.6884291330352426e-04</internalNodes>
      <leafValues>
        7.5350946187973022e-01 -2.8910195827484131e-01</leafValues></_>
    <_>
      <internalNodes>
        0 -1 1476403 4.0879292646422982e-04</internalNodes>
      <leafValues>
        -3.2238891720771790e-01 8.6505782604217529e-01</leafValues></_>
    <_>
      <internalNodes>
        0 -1 482638 1.0018770117312670e-03</internalNodes>
      <leafValues>
        -2.5499299168586731e-01 9.1404837369918823e-01</leafValues></_>
    <_>
      <internalNodes>
        0 -1 2854697 1.5925183834042400e-04</internalNodes>
      <leafValues>
        -3.2635188102722168e-01 7.7792322635650635e-01</leafValues></_></weakClassifiers></stage14>
</opencv_storage>
