<?xml version="1.0"?>
<opencv_storage>
<stage1>
  <maxWeakCount>8</maxWeakCount>
  <stageThreshold>-9.7766387462615967e-01</stageThreshold>
  <weakClassifiers>
    <_>
      <internalNodes>
        0 -1 1365665 9.4147044001147151e-04</internalNodes>
      <leafValues>
        -4.7184467315673828e-01 6.8888890743255615e-01</leafValues></_>
    <_>
      <internalNodes>
        0 -1 1544854 8.3046685904264450e-04</internalNodes>
      <leafValues>
        -2.4102354049682617e-01 7.9076647758483887e-01</leafValues></_>
    <_>
      <internalNodes>
        0 -1 2849093 -7.6680202037096024e-03</internalNodes>
      <leafValues>
        2.7274295687675476e-01 -7.7108389139175415e-01</leafValues></_>
    <_>
      <internalNodes>
        0 -1 1156111 2.1081743761897087e-04</internalNodes>
      <leafValues>
        -3.5484442114830017e-01 4.8526528477668762e-01</leafValues></_>
    <_>
      <internalNodes>
        0 -1 1379790 -3.0758301727473736e-03</internalNodes>
      <leafValues>
        6.7013376951217651e-01 -2.4676580727100372e-01</leafValues></_>
    <_>
      <internalNodes>
        0 -1 1938016 -4.6036759158596396e-04</internalNodes>
      <leafValues>
        8.4187060594558716e-01 -1.9907863438129425e-01</leafValues></_>
    <_>
      <internalNodes>
        0 -1 1631071 1.0743220336735249e-03</internalNodes>
      <leafValues>
        -2.4161995947360992e-01 8.2233399152755737e-01</leafValues></_>
    <_>
      <internalNodes>
        0 -1 1858399 -6.5049459226429462e-04</internalNodes>
      <leafValues>
        7.2448372840881348e-01 -2.0841224491596222e-01</leafValues></_></weakClassifiers></stage1>
</opencv_storage>
