<?xml version="1.0"?>
<opencv_storage>
<stage17>
  <maxWeakCount>7</maxWeakCount>
  <stageThreshold>-9.3273729085922241e-01</stageThreshold>
  <weakClassifiers>
    <_>
      <internalNodes>
        0 -1 2785863 2.1874255035072565e-03</internalNodes>
      <leafValues>
        -2.7516779303550720e-01 8.0392158031463623e-01</leafValues></_>
    <_>
      <internalNodes>
        0 -1 2542181 5.0779385492205620e-04</internalNodes>
      <leafValues>
        -2.6312130689620972e-01 5.7854497432708740e-01</leafValues></_>
    <_>
      <internalNodes>
        0 -1 2979939 -8.6183659732341766e-05</internalNodes>
      <leafValues>
        -6.9427478313446045e-01 3.0094233155250549e-01</leafValues></_>
    <_>
      <internalNodes>
        0 -1 2475036 -3.1660671811550856e-04</internalNodes>
      <leafValues>
        7.0958691835403442e-01 -2.8643885254859924e-01</leafValues></_>
    <_>
      <internalNodes>
        0 -1 1719062 7.2577211540192366e-05</internalNodes>
      <leafValues>
        -3.8609543442726135e-01 5.1214569807052612e-01</leafValues></_>
    <_>
      <internalNodes>
        0 -1 2775414 1.7292381016886793e-05</internalNodes>
      <leafValues>
        -3.2314226031303406e-01 6.6477406024932861e-01</leafValues></_>
    <_>
      <internalNodes>
        0 -1 2188831 4.0112216956913471e-03</internalNodes>
      <leafValues>
        3.0028599500656128e-01 -7.8421574831008911e-01</leafValues></_></weakClassifiers></stage17>
</opencv_storage>
