<?xml version="1.0"?>
<opencv_storage>
<stage10>
  <maxWeakCount>12</maxWeakCount>
  <stageThreshold>-8.9594322443008423e-01</stageThreshold>
  <weakClassifiers>
    <_>
      <internalNodes>
        0 -1 1539631 3.6869409959763288e-03</internalNodes>
      <leafValues>
        -3.4982332587242126e-01 5.7142859697341919e-01</leafValues></_>
    <_>
      <internalNodes>
        0 -1 1057941 4.0124857332557440e-04</internalNodes>
      <leafValues>
        -2.3100477457046509e-01 4.5091372728347778e-01</leafValues></_>
    <_>
      <internalNodes>
        0 -1 1295476 -2.0748287439346313e-01</internalNodes>
      <leafValues>
        -5.7454138994216919e-01 1.6269552707672119e-01</leafValues></_>
    <_>
      <internalNodes>
        0 -1 1703965 -1.8745132256299257e-03</internalNodes>
      <leafValues>
        -1.3548038899898529e-01 6.2847846746444702e-01</leafValues></_>
    <_>
      <internalNodes>
        0 -1 2072504 -5.1397207425907254e-04</internalNodes>
      <leafValues>
        3.9754346013069153e-01 -1.9588558375835419e-01</leafValues></_>
    <_>
      <internalNodes>
        0 -1 238666 5.4107625037431717e-03</internalNodes>
      <leafValues>
        -1.6142317652702332e-01 5.5799388885498047e-01</leafValues></_>
    <_>
      <internalNodes>
        0 -1 786148 -1.9044840882997960e-05</internalNodes>
      <leafValues>
        -4.3334269523620605e-01 1.9401858747005463e-01</leafValues></_>
    <_>
      <internalNodes>
        0 -1 888151 1.8625079974299297e-05</internalNodes>
      <leafValues>
        2.2603411972522736e-01 -5.2945625782012939e-01</leafValues></_>
    <_>
      <internalNodes>
        0 -1 1142957 -1.0618107626214623e-03</internalNodes>
      <leafValues>
        4.8682802915573120e-01 -2.1465921401977539e-01</leafValues></_>
    <_>
      <internalNodes>
        0 -1 951517 2.4082146584987640e-02</internalNodes>
      <leafValues>
        -2.3917572200298309e-01 3.7236285209655762e-01</leafValues></_>
    <_>
      <internalNodes>
        0 -1 667597 -1.7820684239268303e-02</internalNodes>
      <leafValues>
        4.6331712603569031e-01 -2.3941227793693542e-01</leafValues></_>
    <_>
      <internalNodes>
        0 -1 2368379 -9.4046015874482691e-05</internalNodes>
      <leafValues>
        5.7229781150817871e-01 -1.6130423545837402e-01</leafValues></_></weakClassifiers></stage10>
</opencv_storage>
