<?xml version="1.0"?>
<opencv_storage>
<stage18>
  <maxWeakCount>15</maxWeakCount>
  <stageThreshold>-1.0446392297744751e+00</stageThreshold>
  <weakClassifiers>
    <_>
      <internalNodes>
        0 -1 118519 -1.4468323206529021e-03</internalNodes>
      <leafValues>
        3.0232557654380798e-01 -3.6276391148567200e-01</leafValues></_>
    <_>
      <internalNodes>
        0 -1 1861860 1.4656395651400089e-03</internalNodes>
      <leafValues>
        8.6756303906440735e-02 -6.9732463359832764e-01</leafValues></_>
    <_>
      <internalNodes>
        0 -1 3013912 -6.5583932155277580e-05</internalNodes>
      <leafValues>
        -5.4517096281051636e-01 1.6793921589851379e-01</leafValues></_>
    <_>
      <internalNodes>
        0 -1 2117105 2.4255918106064200e-04</internalNodes>
      <leafValues>
        -2.1347494423389435e-01 4.5735597610473633e-01</leafValues></_>
    <_>
      <internalNodes>
        0 -1 270398 -7.8486779239028692e-04</internalNodes>
      <leafValues>
        3.4339782595634460e-01 -2.2739729285240173e-01</leafValues></_>
    <_>
      <internalNodes>
        0 -1 356527 3.3443300053477287e-03</internalNodes>
      <leafValues>
        -1.6444426774978638e-01 4.9348971247673035e-01</leafValues></_>
    <_>
      <internalNodes>
        0 -1 808032 9.2988781630992889e-02</internalNodes>
      <leafValues>
        1.2016127258539200e-01 -6.6591399908065796e-01</leafValues></_>
    <_>
      <internalNodes>
        0 -1 2744749 -9.0868596453219652e-04</internalNodes>
      <leafValues>
        -3.6947450041770935e-01 1.9276052713394165e-01</leafValues></_>
    <_>
      <internalNodes>
        0 -1 2158192 -2.2928570979274809e-04</internalNodes>
      <leafValues>
        3.7949320673942566e-01 -1.8403275310993195e-01</leafValues></_>
    <_>
      <internalNodes>
        0 -1 2932487 2.3161451099440455e-04</internalNodes>
      <leafValues>
        -2.3078118264675140e-01 3.3541944622993469e-01</leafValues></_>
    <_>
      <internalNodes>
        0 -1 3021422 -1.4893081970512867e-03</internalNodes>
      <leafValues>
        -8.3376467227935791e-01 1.0978059470653534e-01</leafValues></_>
    <_>
      <internalNodes>
        0 -1 1849944 2.0848095300607383e-04</internalNodes>
      <leafValues>
        1.9288913905620575e-01 -3.7311545014381409e-01</leafValues></_>
    <_>
      <internalNodes>
        0 -1 3013532 -1.2680776126217097e-04</internalNodes>
      <leafValues>
        -5.0395667552947998e-01 1.4914189279079437e-01</leafValues></_>
    <_>
      <internalNodes>
        0 -1 1470627 5.3655348892789334e-05</internalNodes>
      <leafValues>
        -2.4318498373031616e-01 3.3908846974372864e-01</leafValues></_>
    <_>
      <internalNodes>
        0 -1 2138883 -2.5572761660441756e-04</internalNodes>
      <leafValues>
        -7.5434345006942749e-01 1.1921466886997223e-01</leafValues></_></weakClassifiers></stage18>
</opencv_storage>
