<?xml version="1.0"?>
<opencv_storage>
<stage5>
  <maxWeakCount>6</maxWeakCount>
  <stageThreshold>-6.0260909795761108e-01</stageThreshold>
  <weakClassifiers>
    <_>
      <internalNodes>
        0 -1 2705865 -6.7890450358390808e-02</internalNodes>
      <leafValues>
        -7.0059877634048462e-01 2.6582279801368713e-01</leafValues></_>
    <_>
      <internalNodes>
        0 -1 23247 -3.3473856747150421e-02</internalNodes>
      <leafValues>
        6.7634338140487671e-01 -2.5258141756057739e-01</leafValues></_>
    <_>
      <internalNodes>
        0 -1 2629201 -1.3920791447162628e-02</internalNodes>
      <leafValues>
        -1. 1.5083360671997070e-01</leafValues></_>
    <_>
      <internalNodes>
        0 -1 888317 1.1905838618986309e-04</internalNodes>
      <leafValues>
        2.0063211023807526e-01 -6.5960299968719482e-01</leafValues></_>
    <_>
      <internalNodes>
        0 -1 843720 -2.7836640365421772e-03</internalNodes>
      <leafValues>
        6.3648706674575806e-01 -2.2911781072616577e-01</leafValues></_>
    <_>
      <internalNodes>
        0 -1 3023783 -2.3529471945948899e-05</internalNodes>
      <leafValues>
        -6.1728131771087646e-01 2.2822320461273193e-01</leafValues></_></weakClassifiers></stage5>
</opencv_storage>
